svm_type c_svc
kernel_type rbf
gamma 0.25
nr_class 2
total_sv 246
rho -0.656545
label 1 -1
nr_sv 177 69
SV
1 1:-1.6509819 2:-1.4208386 3:-0.33458138 4:0 
1 1:-1.3407428 2:-1.6083508 3:1.8442125 4:0 
0.3397176659609485 1:-4.0900526 2:1.0791717 3:-15.274032 4:0 
0.3396177172707797 1:-3.477705 2:-3.1144662 3:-15.509344 4:0 
0.293075961208948 1:4.6012573 2:-9.246071 3:-7.5049057 4:0 
0.2942083752426645 1:3.3853474 2:-6.3255816 3:-11.54282 4:0 
0.2950237667967871 1:1.3784456 2:-7.5755854 3:-10.269594 4:0 
0.1572246655469977 1:2.7565517 2:-1.2754949 3:-6.9210033 4:0 
0.1152092253355999 1:2.6496348 2:6.0945373 3:-3.376152 4:0 
1 1:0.43449402 2:-0.19351825 3:1.1197724 4:0 
0.3186997780105356 1:2.7905555 2:-2.3453937 3:-1.7665055 4:0 
0.4508934672623682 1:2.6091423 2:-4.541415 3:-4.3208194 4:0 
0.4745046655029401 1:6.577217 2:-6.4084816 3:-1.6759262 4:1.81 
0.9583345668369044 1:7.31878 2:-2.5767405 3:-2.235249 4:1.81 
0.337843115199755 1:10.952664 2:-5.9023385 3:-0.29894972 4:1.81 
0.3159728464269629 1:7.7947893 2:-0.61391544 3:2.7141953 4:1.81 
1 1:4.649586 2:-2.169013 3:1.6389732 4:2.04 
0.02561016121180888 1:4.169171 2:-1.8889465 3:1.7894154 4:2.04 
0.648843616037506 1:3.3982077 2:3.5006824 3:-1.6235662 4:2.04 
0.3925174928765497 1:1.3592625 2:-2.1785183 3:-1.3466101 4:2.36 
0.3031052393622897 1:-0.2961836 2:7.2529297 3:-1.3989792 4:2.36 
0.3520236991923305 1:-1.8855314 2:-4.5147614 3:-0.3839712 4:2.36 
0.07138323692725597 1:0.07598591 2:-3.2445292 3:-1.0556221 4:2.93 
0.2909020815097037 1:-1.5206387 2:6.758022 3:2.4414415 4:2.93 
1 1:-0.018718243 2:1.3712106 3:0.4800973 4:2.93 
0.451031128107942 1:0.37771368 2:-4.6661253 3:-3.5122385 4:3.62 
0.2848797114445147 1:2.5450506 2:-2.8379583 3:-3.2064996 4:3.62 
0.3891131432804286 1:-1.1928577 2:-1.0981796 3:-0.8376312 4:3.51 
0.5355246129288961 1:-2.2672324 2:-0.40723968 3:-0.11598873 4:3.51 
0.3954346662195801 1:1.2595963 2:-2.4220097 3:0.030764103 4:3.51 
0.3373440104324091 1:0.29166555 2:0.19655633 3:0.74032116 4:3.51 
0.05871513296264536 1:0.29830456 2:-0.24889135 3:-2.376717 4:4.2 
0.03604084588961962 1:2.6539936 2:0.3288474 3:-1.2857461 4:5.49 
0.02111444431629425 1:1.2745266 2:-2.7085066 3:0.9355936 4:5.49 
0.3036494324142229 1:2.8735995 2:-5.8280163 3:-5.677039 4:5.49 
0.28724959647311 1:-3.1344554 2:8.414658 3:-0.26634502 4:5.49 
0.3092235250044184 1:3.83735 2:-3.8656635 3:-0.4588728 4:5.49 
0.1362024679288354 1:0.689312 2:-6.509942 3:-4.0354233 4:5.49 
0.07701183336028194 1:-0.43295622 2:-6.643152 3:-1.7860832 4:5.49 
0.294724296439218 1:-5.2864623 2:3.3384945 3:2.093254 4:5.49 
0.1049065284883105 1:-0.5450096 2:-3.7464454 3:1.260148 4:5.49 
0.1674954338903737 1:0.3087926 2:-5.6487136 3:-0.7521949 4:5.49 
0.108114986337797 1:1.6047807 2:-1.4522557 3:1.3941259 4:5.49 
0.02697790726754569 1:-0.74826574 2:5.5990953 3:2.7742214 4:5.49 
0.02073326604905702 1:-2.3829029 2:-4.026044 3:-2.1606803 4:5.49 
0.1823740560534696 1:-2.239289 2:4.4355216 3:2.049583 4:5.49 
0.01255550765161326 1:0.98763466 2:-3.926307 3:-0.4557743 4:5.49 
0.118796921967899 1:-1.4330485 2:1.7651293 3:3.0767913 4:5.49 
0.02387716055608794 1:-1.0419164 2:3.3535385 3:0.83541536 4:5.49 
0.02511610302734446 1:-3.5767813 2:6.396675 3:3.907571 4:5.49 
0.07829497335249265 1:-3.0479522 2:-3.1781108 3:1.3223214 4:5.49 
0.1140121005288828 1:-2.0767214 2:-4.000908 3:2.062285 4:5.49 
0.09296796107125864 1:-1.1246097 2:-1.6439807 3:2.4902115 4:5.49 
0.06340172176326996 1:-0.6502094 2:-4.809425 3:0.22700548 4:5.49 
0.262834660611194 1:-1.3368354 2:2.5113807 3:-1.5950522 4:5.49 
0.06561959431851094 1:0.96685886 2:0.9557204 3:-1.8582416 4:5.49 
0.08750036709215774 1:2.8205786 2:-0.83147573 3:0.5013442 4:5.49 
0.2379114719571442 1:0.68734217 2:5.9601073 3:3.701615 4:5.49 
0.0748803541954617 1:2.2029505 2:2.2049024 3:-0.3452897 4:5.49 
0.1602326576324437 1:-3.4088974 2:-1.02216 3:1.7717075 4:5.49 
0.2363095379872459 1:2.529933 2:-0.22528648 3:-3.1844897 4:5.49 
0.03951001140475319 1:0.39168787 2:-3.810515 3:-4.0647063 4:5.49 
0.179533134196902 1:-1.186876 2:-0.7792883 3:-3.37252 4:5.49 
0.005970141223211324 1:-0.069612026 2:-3.3114052 3:-1.3911171 4:5.49 
0.193510371882395 1:-2.1273198 2:-2.114224 3:-3.3194633 4:5.49 
0.244792269416178 1:-3.1610186 2:-3.9679267 3:-1.4343204 4:5.49 
0.1279474944053088 1:-3.823114 2:6.4895773 3:4.515085 4:5.49 
0.1407719595566832 1:-0.8959675 2:3.0688176 3:3.4413815 4:5.49 
0.01407392358622018 1:0.62974024 2:-2.3846612 3:-2.2448096 4:5.49 
0.2035526521242715 1:0.45738506 2:0.94054055 3:3.1989856 4:5.49 
0.07902811126759302 1:0.21204662 2:5.1545873 3:1.1240706 4:5.49 
0.1595783910151753 1:-0.9229326 2:-6.63666 3:-2.9532566 4:5.49 
0.1708014417106582 1:-4.244291 2:6.3430977 3:4.2649307 4:5.49 
0.1009898973387247 1:-3.0335848 2:-1.961173 3:2.912549 4:5.49 
0.2296990493892275 1:3.2450466 2:4.245873 3:-1.9864945 4:5.49 
0.07250290199783166 1:1.1267905 2:6.4055185 3:0.6239462 4:5.49 
0.2895755908019862 1:-2.6334336 2:10.001544 3:1.8586626 4:5.49 
0.3313286988646925 1:-1.1383767 2:8.126263 3:6.5290513 4:5.49 
0.003533704792189289 1:1.973043 2:-1.1629248 3:-3.550047 4:5.49 
0.1532804635431492 1:0.68750334 2:4.361759 3:-0.27582455 4:5.49 
0.2877312224729445 1:-4.0037374 2:-5.801938 3:6.4327674 4:5.49 
0.2457815198438432 1:-4.122826 2:-4.6655164 3:4.231016 4:5.49 
0.2777213189483181 1:3.9219522 2:1.2518764 3:0.7088909 4:5.49 
0.1280530736128906 1:1.9937625 2:-3.0189667 3:-4.075616 4:5.49 
0.2999799768546651 1:-0.9201448 2:-3.1284351 3:5.02016 4:5.49 
0.2491784520743271 1:1.7512772 2:8.103178 3:2.3481526 4:5.49 
0.2443592035092376 1:2.6738627 2:5.538769 3:-4.6503468 4:5.49 
0.2065341502445539 1:3.6357589 2:6.825307 3:-3.2541177 4:5.49 
0.2673753545329107 1:1.0699906 2:8.225847 3:-2.458154 4:5.49 
0.160237444259531 1:0.74118185 2:7.9135404 3:0.044148922 4:5.49 
0.3434625730290579 1:-10.568473 2:10.390236 3:14.012733 4:5.49 
0.260863204623746 1:-7.9211216 2:6.896442 3:6.8112454 4:5.49 
0.2591420275035209 1:-8.575106 2:5.995249 3:4.9725313 4:5.49 
0.8085402916873221 1:-6.86477 2:5.5392847 3:0.9611521 4:2.03 
0.7150008829116458 1:-4.7971125 2:4.542263 3:1.2390022 4:2.03 
0.236333929942965 1:-3.372522 2:3.3709898 3:0.98635006 4:2.03 
0.632551514134599 1:-0.5999236 2:3.3936896 3:-0.80911064 4:2.03 
0.3146172187871959 1:0.8927102 2:2.43249 3:-1.0912409 4:1.84 
1 1:2.5050294 2:0.8486018 3:-0.89690304 4:1.84 
1 1:-1.8242844 2:-2.2264977 3:1.4586048 4:0 
0.3510578120500654 1:-6.2071676 2:5.9979877 3:-6.089116 4:0 
1 1:-0.6303409 2:0.56627274 3:0.52706146 4:0 
0.4283363321775917 1:-1.2597038 2:0.91641474 3:2.563734 4:0 
0.3432753615869912 1:-3.3086717 2:3.3967175 3:-7.04501 4:0 
0.3431056444708707 1:-7.011546 2:-15.876005 3:-8.684841 4:0 
0.1909817540289471 1:3.6765862 2:-9.92211 3:-6.6723413 4:0 
0.348508855191558 1:9.228393 2:-7.0283837 3:-11.095499 4:0 
0.3434855066101713 1:10.231477 2:0.34802294 3:-14.981949 4:0 
0.3324320754894757 1:4.062128 2:1.3600364 3:-8.604294 4:0 
0.25867326933195 1:9.740241 2:3.9829385 3:-6.665481 4:0 
0.4268817091865544 1:5.4192142 2:2.9761066 3:-3.3449383 4:0 
0.04685683160721874 1:4.4090133 2:3.5274763 3:-4.0830154 4:0 
0.2128183705158139 1:3.1129804 2:5.749649 3:-1.1094561 4:0 
0.2697922461996883 1:5.4819565 2:6.5772715 3:4.1486254 4:0 
1 1:0.7285541 2:0.050430775 3:0.47949505 4:0 
1 1:-0.38614222 2:1.9066923 3:0.69535255 4:0 
0.3493601304670476 1:-3.4763634 2:-1.8393812 3:0.24825573 4:0 
0.1854728193422014 1:-2.1333828 2:-5.4289293 3:0.14622116 4:0 
0.1798631529496302 1:3.671607 2:2.3786843 3:2.7157493 4:0 
0.1784571965306174 1:0.29295468 2:1.9662344 3:2.2999554 4:0 
1 1:-0.13204819 2:-1.1522002 3:0.1642561 4:0 
0.339660764402986 1:13.622488 2:-6.229141 3:-3.0071735 4:0 
1 1:0.8992193 2:-0.33491135 3:1.8301139 4:0 
0.2035288146479487 1:-6.724189 2:0.83311987 3:0.2549038 4:0 
0.7840558383080533 1:-6.097459 2:-3.165454 3:1.3613815 4:0 
0.1941664637492437 1:1.3993998 2:-3.5974064 3:-0.9107423 4:0 
0.3712732330790969 1:-0.4024799 2:-5.0672593 3:-0.9565048 4:0 
0.02112093218990412 1:-1.2194672 2:-2.8250418 3:-3.115995 4:0 
0.2261983888750101 1:1.9982228 2:-1.9533787 3:-6.611645 4:0 
0.6764562102760789 1:-3.6869235 2:-3.1296644 3:-2.597621 4:0 
1 1:1.9675305 2:0.959754 3:-0.49325466 4:0 
1 1:-0.27232873 2:-0.052161694 3:-0.37310028 4:0 
0.2868885498602193 1:0.32373285 2:-1.144155 3:-3.1717262 4:0 
1 1:1.1857038 2:0.37941647 3:-1.3471494 4:0 
0.362234021072395 1:0.31756926 2:-4.444822 3:-6.0138955 4:0 
0.2340796356294393 1:0.8843788 2:6.1097684 3:2.3978124 4:0 
0.2885869935732325 1:0.84949994 2:6.367611 3:5.7314873 4:0 
0.03164437052976697 1:2.9092793 2:4.3004303 3:4.101182 4:0 
0.02294905057413221 1:-3.0233688 2:2.0667922 3:1.4728155 4:0 
0.08420137485708226 1:0.5192753 2:4.780852 3:3.532062 4:0 
0.1441078066282472 1:3.6957195 2:6.352857 3:4.7579956 4:0 
1 1:-0.5270739 2:-1.8608108 3:-0.70936203 4:0 
0.09536232940158551 1:3.364665 2:4.468201 3:2.909319 4:0 
0.6592421198349581 1:0.5662973 2:2.4981787 3:-0.99671316 4:0 
0.129257037652445 1:2.144603 2:2.6962264 3:4.2254252 4:0 
1 1:-1.4770567 2:-0.2548232 3:-1.275837 4:0 
0.4462841249857885 1:-2.4164913 2:-1.4077883 3:-0.22615004 4:0 
1 1:-0.6511781 2:-0.12617207 3:-0.08857727 4:0 
0.8720210438868233 1:-1.199064 2:-3.6335053 3:-3.5456176 4:0 
0.02607428702835253 1:2.934865 2:5.8422527 3:4.6907616 4:0 
0.2838403325752568 1:2.0383158 2:2.9439616 3:0.9929905 4:0 
1 1:1.2543813 2:-0.30264425 3:0.67029715 4:0 
1 1:-1.2864413 2:-1.2764769 3:0.064118385 4:0 
0.3360542269084398 1:-7.9292054 2:1.1841316 3:4.7134037 4:0 
0.3048671144963846 1:-8.195356 2:3.6712048 3:1.1494098 4:0 
0.24669223004804 1:8.92551 2:2.851057 3:-5.1359143 4:0 
0.9656249116047151 1:3.5204747 2:2.073461 3:-0.40655184 4:0 
0.3434685771090553 1:1.6673614 2:-0.17096567 3:1.8976908 4:0 
0.1719690643065006 1:2.1483793 2:-2.0258079 3:-0.1295948 4:0 
1 1:1.7232897 2:-0.73308134 3:0.34703207 4:0 
1 1:-0.21709216 2:-0.47191143 3:-0.85538673 4:0 
0.2072437364801738 1:1.8648676 2:2.4013877 3:2.107666 4:0 
0.03363089711402607 1:2.2563586 2:-0.7423773 3:0.76846933 4:0 
0.3702522924446249 1:-6.636238 2:0.40693903 3:-1.5383892 4:0 
1 1:-6.040166 2:-3.4851084 3:-2.8116035 4:0 
0.2765986410529214 1:2.2237954 2:6.8259373 3:-4.7627935 4:0 
0.8698283282992382 1:-3.3044815 2:-1.1140075 3:-2.3564854 4:0 
1 1:-0.5587827 2:0.8675294 3:-0.37359238 4:0 
0.2655401123131884 1:-4.2906637 2:0.27317905 3:2.9716277 4:0 
0.1457449867413019 1:-2.7021248 2:-0.05492878 3:-1.3421583 4:0 
1 1:-2.666772 2:-0.39246893 3:0.3474722 4:0 
0.3434432583405815 1:-6.240836 2:6.215617 3:14.451723 4:0 
0.3434382000759227 1:5.0332775 2:6.037479 3:14.502171 4:0 
0.2776335135992736 1:10.71013 2:4.349144 3:8.234761 4:0 
0.2780876733209707 1:9.875323 2:3.6648793 3:7.526826 4:2.03 
0.3587510507967547 1:7.324121 2:1.9232074 3:2.5910194 4:2.03 
0.0682780408972482 1:8.023009 2:1.4184222 3:2.631392 4:2.03 
-0.615282986796146 1:-1.0456535 2:-0.55292654 3:0.24460983 4:0 
-1 1:-1.5091063 2:-1.1438699 3:0.4853058 4:0 
-1 1:-0.8768451 2:-1.0079813 3:0.3310194 4:0 
-1 1:0.07650602 2:-0.91860557 3:0.33389091 4:0 
-1 1:-0.6555791 2:-0.97351575 3:0.95638466 4:0 
-1 1:-0.9188454 2:-0.863027 3:0.17013073 4:0 
-1 1:1.0686514 2:0.47632337 3:-0.29930305 4:0 
-1 1:1.0501027 2:-0.14550257 3:0.6094923 4:0 
-1 1:0.46934482 2:0.17973733 3:-0.30079365 4:0 
-1 1:1.2967211 2:0.25777745 3:1.3190174 4:0 
-1 1:-0.83786476 2:0.48416018 3:-0.19996262 4:0 
-1 1:-0.63388246 2:-0.9596553 3:-0.17471313 4:0 
-1 1:-1.6443815 2:-0.98636496 3:0.057886124 4:0 
-1 1:-0.49394196 2:0.06849265 3:-0.4160509 4:0 
-0.004597935067151089 1:0.13574266 2:-0.51395214 3:0.09444046 4:0 
-1 1:0.80566573 2:1.1131303 3:-0.02649498 4:0 
-1 1:0.14475536 2:0.7418988 3:-0.26764965 4:0 
-0.815477414750024 1:0.5389749 2:0.333102 3:0.17265701 4:0 
-0.7908672734687353 1:-2.638237 2:2.287843 3:-1.665606 4:1.84 
-1 1:-4.303917 2:-3.1120903 3:2.3549032 4:0 
-1 1:-3.1572251 2:-2.6160824 3:1.4142561 4:0 
-1 1:-0.8812212 2:1.442184 3:-0.47945595 4:1.37 
-1 1:-0.32445562 2:0.36964273 3:1.7720942 4:1.37 
-0.3889029569936558 1:-0.12110734 2:0.7052665 3:-0.94503546 4:1.37 
-0.6774749437733625 1:0.9021938 2:-0.8845773 3:0.6551328 4:1.37 
-1 1:1.8218381 2:-0.90185547 3:0.39153194 4:1.37 
-0.9658708856144844 1:0.028349519 2:1.2642684 3:0.89092684 4:1.37 
-1 1:24.424623 2:-10.144407 3:-2.722999 4:1.37 
-1 1:11.147091 2:-12.551739 3:-10.254562 4:1.37 
-1 1:7.1718884 2:-10.198977 3:-8.829205 4:1.37 
-1 1:5.9237885 2:-10.965836 3:-3.7565937 4:1.37 
-1 1:-1.1679053 2:-7.604763 3:-6.2890415 4:1.37 
-1 1:-6.015066 2:-3.2660291 3:-3.1941247 4:1.37 
-1 1:0.38038063 2:-6.1197844 3:-2.1408443 4:1.37 
-1 1:4.445776 2:-2.5982747 3:0.17706966 4:1.37 
-0.9341108730736815 1:6.8349476 2:0.1976881 3:-0.4219811 4:1.37 
-1 1:6.6613436 2:2.7494667 3:-0.38378417 4:1.37 
-1 1:5.2211895 2:-2.7835517 3:-2.4998174 4:1.37 
-0.5255175654567501 1:-1.8162746 2:0.30994844 3:-0.50453496 4:1.37 
-1 1:-2.6538134 2:-0.775054 3:-2.4335258 4:1.37 
-1 1:-1.7096872 2:-1.687882 3:-0.033997655 4:1.37 
-1 1:3.708085 2:-5.1909404 3:1.515477 4:1.37 
-1 1:4.4035234 2:1.8917155 3:-0.9574912 4:1.37 
-1 1:2.4649372 2:2.3037462 3:0.5610926 4:1.37 
-0.9271185353941673 1:5.8472204 2:-0.95896626 3:-1.5233982 4:1.37 
-1 1:1.1816902 2:-3.2450209 3:1.2769905 4:1.37 
-1 1:0.9484358 2:-2.8973203 3:-3.9575996 4:1.37 
-1 1:-9.195891 2:-0.81901026 3:-0.60646343 4:1.37 
-1 1:-1.3387046 2:-3.0739522 3:-3.7736094 4:1.37 
-1 1:7.0515203 2:-4.923934 3:3.015764 4:1.37 
-1 1:10.943239 2:0.7665045 3:1.138401 4:1.37 
-1 1:-10.239919 2:12.348633 3:5.142378 4:1.37 
-1 1:-4.8234334 2:5.7299623 3:0.4549756 4:1.37 
-1 1:-7.1801558 2:-9.389708 3:-9.185058 4:1.37 
-0.9823232653229407 1:3.716484 2:-5.598727 3:-0.53611374 4:1.37 
-1 1:-3.9276667 2:-2.3313053 3:-3.2389941 4:1.37 
-1 1:-5.226789 2:-2.527904 3:-1.6714307 4:1.37 
-1 1:4.169224 2:-7.6078153 3:0.54390967 4:1.37 
-1 1:4.254097 2:1.3872921 3:-0.95317876 4:1.37 
-1 1:-7.861469 2:9.532009 3:4.477946 4:1.37 
-1 1:-9.818464 2:8.27614 3:-1.284183 4:1.37 
-1 1:-8.066088 2:8.587768 3:1.1688647 4:1.37 
-0.7655891128945 1:-7.588831 2:4.681121 3:-2.0812964 4:1.37 
-1 1:-7.4878473 2:3.6594932 3:-2.96843 4:1.37 
-1 1:-5.888176 2:5.572627 3:-0.9963975 4:1.37 
-0.8110150866201092 1:-3.2774327 2:2.125811 3:-2.656959 4:1.37 
-0.6452127779785348 1:-1.4570419 2:0.12815046 3:-3.6664226 4:1.37 
-1 1:-0.46897513 2:2.3060188 3:-3.5202549 4:1.37 
-0.5647050643115961 1:-1.8828554 2:-0.6929846 3:-2.8253694 4:1.37 
